digraph Tree {
node [shape=box] ;
0 [label="X[132] <= 15.1845\ngini = 0.297\nsamples = 11813\nvalue = [9670, 2143]"] ;
1 [label="X[1] <= 846.6634\ngini = 0.0291\nsamples = 9695\nvalue = [9552, 143]"] ;
0 -> 1 [labeldistance=2.5, labelangle=45, headlabel="True"] ;
2 [label="X[245] <= 0.0\ngini = 0.0277\nsamples = 9688\nvalue = [9552, 136]"] ;
1 -> 2 ;
3 [label="X[126] <= 80.5\ngini = 0.1478\nsamples = 1220\nvalue = [1122, 98]"] ;
2 -> 3 ;
4 [label="X[37] <= 0.0001\ngini = 0.3854\nsamples = 376\nvalue = [278, 98]"] ;
3 -> 4 ;
5 [label="gini = 0.3921\nsamples = 366\nvalue = [268, 98]"] ;
4 -> 5 ;
6 [label="gini = 0.0\nsamples = 10\nvalue = [10, 0]"] ;
4 -> 6 ;
7 [label="gini = 0.0\nsamples = 844\nvalue = [844, 0]"] ;
3 -> 7 ;
8 [label="X[163] <= 0.0\ngini = 0.0089\nsamples = 8468\nvalue = [8430, 38]"] ;
2 -> 8 ;
9 [label="X[184] <= 0.8\ngini = 0.0012\nsamples = 8172\nvalue = [8167, 5]"] ;
8 -> 9 ;
10 [label="gini = 0.0\nsamples = 8117\nvalue = [8117, 0]"] ;
9 -> 10 ;
11 [label="gini = 0.1653\nsamples = 55\nvalue = [50, 5]"] ;
9 -> 11 ;
12 [label="X[96] <= 83.9509\ngini = 0.1981\nsamples = 296\nvalue = [263, 33]"] ;
8 -> 12 ;
13 [label="gini = 0.0654\nsamples = 266\nvalue = [257, 9]"] ;
12 -> 13 ;
14 [label="gini = 0.32\nsamples = 30\nvalue = [6, 24]"] ;
12 -> 14 ;
15 [label="gini = 0.0\nsamples = 7\nvalue = [0, 7]"] ;
1 -> 15 ;
16 [label="X[4] <= 5.9767\ngini = 0.1052\nsamples = 2118\nvalue = [118, 2000]"] ;
0 -> 16 [labeldistance=2.5, labelangle=-45, headlabel="False"] ;
17 [label="X[147] <= 19.1197\ngini = 0.3292\nsamples = 77\nvalue = [61, 16]"] ;
16 -> 17 ;
18 [label="X[154] <= 44.651\ngini = 0.1528\nsamples = 12\nvalue = [1, 11]"] ;
17 -> 18 ;
19 [label="gini = 0.0\nsamples = 11\nvalue = [0, 11]"] ;
18 -> 19 ;
20 [label="gini = 0.0\nsamples = 1\nvalue = [1, 0]"] ;
18 -> 20 ;
21 [label="X[223] <= 0.0296\ngini = 0.142\nsamples = 65\nvalue = [60, 5]"] ;
17 -> 21 ;
22 [label="gini = 0.0\nsamples = 2\nvalue = [0, 2]"] ;
21 -> 22 ;
23 [label="X[1] <= 712.1012\ngini = 0.0907\nsamples = 63\nvalue = [60, 3]"] ;
21 -> 23 ;
24 [label="gini = 0.0624\nsamples = 62\nvalue = [60, 2]"] ;
23 -> 24 ;
25 [label="gini = 0.0\nsamples = 1\nvalue = [0, 1]"] ;
23 -> 25 ;
26 [label="X[5] <= 0.3341\ngini = 0.0543\nsamples = 2041\nvalue = [57, 1984]"] ;
16 -> 26 ;
27 [label="gini = 0.0\nsamples = 6\nvalue = [6, 0]"] ;
26 -> 27 ;
28 [label="X[136] <= 16.3436\ngini = 0.0489\nsamples = 2035\nvalue = [51, 1984]"] ;
26 -> 28 ;
29 [label="X[230] <= 2.523\ngini = 0.4898\nsamples = 7\nvalue = [4, 3]"] ;
28 -> 29 ;
30 [label="gini = 0.0\nsamples = 3\nvalue = [0, 3]"] ;
29 -> 30 ;
31 [label="gini = 0.0\nsamples = 4\nvalue = [4, 0]"] ;
29 -> 31 ;
32 [label="X[5] <= 0.7501\ngini = 0.0453\nsamples = 2028\nvalue = [47, 1981]"] ;
28 -> 32 ;
33 [label="gini = 0.4688\nsamples = 8\nvalue = [3, 5]"] ;
32 -> 33 ;
34 [label="gini = 0.0426\nsamples = 2020\nvalue = [44, 1976]"] ;
32 -> 34 ;
}